// Gerado automaticamente por exportWeights.js. Não edite à mão.
// Pesos extraídos do modelo treinado em public/ai-model/.

export const MODEL_WEIGHTS = {
  "version": "1.0.0",
  "architecture": [
    {
      "name": "dense_Dense1",
      "inputs": 3,
      "units": 16,
      "activation": "relu"
    },
    {
      "name": "dense_Dense2",
      "inputs": 16,
      "units": 8,
      "activation": "relu"
    },
    {
      "name": "dense_Dense3",
      "inputs": 8,
      "units": 1,
      "activation": "linear"
    }
  ],
  "layers": {
    "dense_Dense1": {
      "kernel": [
        [
          -0.17583249509334564,
          0.363342821598053,
          -0.27118322253227234,
          -8.316439628601074,
          0.23529276251792908,
          -0.1689559519290924,
          1.501518964767456,
          -0.6404850482940674,
          1.3003672361373901,
          -0.4455530643463135,
          -0.296035498380661,
          -0.35990482568740845,
          0.10634569078683853,
          0.038698986172676086,
          1.0342622995376587,
          0.32633134722709656
        ],
        [
          -1.4555352926254272,
          1.152664065361023,
          -0.8403481841087341,
          -0.007612383924424648,
          1.016414761543274,
          0.2894856333732605,
          0.007168128155171871,
          -0.3196982741355896,
          -0.026080526411533356,
          -0.6222579479217529,
          0.0016977532068267465,
          -0.8060459494590759,
          0.3033721446990967,
          0.0246540829539299,
          1.000059962272644,
          -0.41351673007011414
        ],
        [
          -0.22221288084983826,
          -0.07652950286865234,
          -0.6796276569366455,
          -0.004858814179897308,
          -0.455445796251297,
          -0.39481663703918457,
          -0.02315148152410984,
          -1.2988643646240234,
          -0.06358415633440018,
          0.006018215324729681,
          0.6994381546974182,
          -0.18889477849006653,
          -0.5690903663635254,
          0.475393682718277,
          0.388238787651062,
          -0.16503874957561493
        ]
      ],
      "bias": [
        0,
        0.06713254749774933,
        0.5678504705429077,
        0.1643836349248886,
        -0.08947096765041351,
        -0.02037828415632248,
        -0.07030905783176422,
        0,
        -0.4688596725463867,
        -0.02562820538878441,
        0.17131014168262482,
        0.5286617875099182,
        0.31255996227264404,
        -0.3737713396549225,
        -0.22883112728595734,
        0.5482187271118164
      ]
    },
    "dense_Dense2": {
      "kernel": [
        [
          0.28281527757644653,
          0.3501048982143402,
          -0.21897150576114655,
          -0.20252589881420135,
          0.1707679182291031,
          -0.29372528195381165,
          -0.11227909475564957,
          -0.035465557128190994
        ],
        [
          0.3295356035232544,
          0.24574607610702515,
          -0.33898818492889404,
          0.4283210337162018,
          0.07016915082931519,
          0.007177791558206081,
          -0.43889060616493225,
          -0.11775972694158554
        ],
        [
          -0.22036297619342804,
          0.5455405116081238,
          0.6101104021072388,
          0.25592225790023804,
          -0.7674441337585449,
          0.12206725776195526,
          0.25686123967170715,
          0.3138038218021393
        ],
        [
          -2.3529844284057617,
          4.208096504211426,
          3.543267250061035,
          -2.7922487258911133,
          -0.18436133861541748,
          -2.7882750034332275,
          -0.22491677105426788,
          -3.1211416721343994
        ],
        [
          -0.39139077067375183,
          -0.4797258675098419,
          0.3838186264038086,
          -0.1809803992509842,
          -0.4372849762439728,
          -0.11557009816169739,
          -0.2502914369106293,
          0.5583882927894592
        ],
        [
          -0.18489493429660797,
          0.2529629170894623,
          -0.15131030976772308,
          -0.01584848202764988,
          -0.24621543288230896,
          0.14560547471046448,
          -0.543215811252594,
          0.015155356377363205
        ],
        [
          -0.019885430112481117,
          0.006679240148514509,
          0.4627752900123596,
          -0.07943031936883926,
          -0.0717514157295227,
          -0.22764931619167328,
          -0.11218047887086868,
          -0.3643442690372467
        ],
        [
          0.11963558942079544,
          -0.25801563262939453,
          -0.2796876132488251,
          0.06015302985906601,
          0.38746312260627747,
          -0.10234761238098145,
          -0.25304359197616577,
          -0.1832199990749359
        ],
        [
          -0.5638442635536194,
          -0.18268485367298126,
          -0.41996800899505615,
          -0.16082759201526642,
          -0.18250475823879242,
          0.3324524462223053,
          0.10579334199428558,
          0.09640061855316162
        ],
        [
          0.5620726943016052,
          0.09630440175533295,
          0.48902446031570435,
          0.052470773458480835,
          -0.20609313249588013,
          0.43931329250335693,
          -0.29427990317344666,
          0.06989605724811554
        ],
        [
          0.4632711708545685,
          -0.1184854656457901,
          0.295815646648407,
          0.14036886394023895,
          -0.2636053264141083,
          0.4649236798286438,
          -0.10298501700162888,
          0.37949874997138977
        ],
        [
          -0.32106131315231323,
          -0.4796976149082184,
          -0.3697930574417114,
          -0.10112148523330688,
          -0.3057157099246979,
          -0.2279004603624344,
          -0.30226534605026245,
          0.46920743584632874
        ],
        [
          -0.8546589016914368,
          0.24235011637210846,
          0.12957584857940674,
          0.24140246212482452,
          -0.10301156342029572,
          -0.1711781919002533,
          -0.054038144648075104,
          -0.10984443873167038
        ],
        [
          -0.2903110384941101,
          0.09840571880340576,
          -0.10691305249929428,
          0.12238621711730957,
          -0.5180175304412842,
          0.5301412343978882,
          -0.10052456706762314,
          0.4401780664920807
        ],
        [
          0.17424163222312927,
          0.08881782740354538,
          0.354936808347702,
          0.04022417217493057,
          -0.2803846001625061,
          0.22170644998550415,
          0.04094385355710983,
          -0.1909763216972351
        ],
        [
          -0.039837390184402466,
          0.024667639285326004,
          -0.11163487285375595,
          0.3292553722858429,
          0.01671358197927475,
          0.7728363275527954,
          -0.07388275861740112,
          0.41869649291038513
        ]
      ],
      "bias": [
        -0.16426827013492584,
        -0.04913385957479477,
        -0.049211058765649796,
        0.19644784927368164,
        -0.20891477167606354,
        0.1742236614227295,
        -0.06614375859498978,
        0.1357368528842926
      ]
    },
    "dense_Dense3": {
      "kernel": [
        [
          -0.20170195400714874
        ],
        [
          -0.1604432314634323
        ],
        [
          -0.43989285826683044
        ],
        [
          0.7520617842674255
        ],
        [
          -0.2587694227695465
        ],
        [
          0.21613799035549164
        ],
        [
          -0.6275478005409241
        ],
        [
          0.25202473998069763
        ]
      ],
      "bias": [
        0.2299223095178604
      ]
    }
  },
  "normalization": {
    "features": [
      "pessoas",
      "temp_interna",
      "temp_externa"
    ],
    "target": "temp_alvo_ideal",
    "stats": {
      "pessoas": {
        "min": 0,
        "max": 50
      },
      "temp_interna": {
        "min": 15,
        "max": 40
      },
      "temp_externa": {
        "min": 15,
        "max": 45
      },
      "temp_alvo_ideal": {
        "min": 0,
        "max": 26
      }
    }
  }
};
